{"sizes":[8,16,8,1],"layers":[{"subjectMatch":{},"modeMatch":{},"locationMatch":{},"budgetOk":{},"tutorRating":{},"tutorExp":{},"styleMatch":{},"langMatch":{}},{"0":{"bias":0.11023420095443726,"weights":{"subjectMatch":-0.07379020750522614,"modeMatch":-0.13664211332798004,"locationMatch":-0.22983665764331818,"budgetOk":-0.09252049773931503,"tutorRating":-0.10903149843215942,"tutorExp":-0.18642936646938324,"styleMatch":-0.07192590087652206,"langMatch":0.13202372193336487}},"1":{"bias":-0.25841137766838074,"weights":{"subjectMatch":0.8479924201965332,"modeMatch":0.47545096278190613,"locationMatch":0.25808343291282654,"budgetOk":0.5078249573707581,"tutorRating":-0.10215482115745544,"tutorExp":-0.1839684695005417,"styleMatch":-0.08027827739715576,"langMatch":-0.06734567880630493}},"2":{"bias":0.04454418271780014,"weights":{"subjectMatch":-0.7856866717338562,"modeMatch":-0.5528567433357239,"locationMatch":-0.22246602177619934,"budgetOk":-0.22731254994869232,"tutorRating":0.05161816254258156,"tutorExp":0.12654882669448853,"styleMatch":0.010002660565078259,"langMatch":0.1688069999217987}},"3":{"bias":-0.2650570869445801,"weights":{"subjectMatch":0.6829652190208435,"modeMatch":0.5039176344871521,"locationMatch":0.1291058510541916,"budgetOk":0.16346138715744019,"tutorRating":0.08121746778488159,"tutorExp":0.12831732630729675,"styleMatch":-0.026005279272794724,"langMatch":0.05128592997789383}},"4":{"bias":-0.023744378238916397,"weights":{"subjectMatch":-0.23160859942436218,"modeMatch":-0.19339662790298462,"locationMatch":-0.0790475606918335,"budgetOk":-0.06039948761463165,"tutorRating":0.16077767312526703,"tutorExp":0.14271044731140137,"styleMatch":-0.15037137269973755,"langMatch":-0.15894272923469543}},"5":{"bias":-0.03384062647819519,"weights":{"subjectMatch":0.24706412851810455,"modeMatch":-0.07329606264829636,"locationMatch":0.18797698616981506,"budgetOk":0.13410066068172455,"tutorRating":0.14779306948184967,"tutorExp":-0.013147161342203617,"styleMatch":-0.12260857969522476,"langMatch":0.07025589793920517}},"6":{"bias":-0.10746638476848602,"weights":{"subjectMatch":0.22801481187343597,"modeMatch":0.22396641969680786,"locationMatch":0.06329015642404556,"budgetOk":0.10107247531414032,"tutorRating":0.011477177031338215,"tutorExp":-0.1418488621711731,"styleMatch":0.16656439006328583,"langMatch":-0.11492935568094254}},"7":{"bias":-0.23280051350593567,"weights":{"subjectMatch":0.8373507857322693,"modeMatch":0.3468068838119507,"locationMatch":0.5633278489112854,"budgetOk":0.1911131739616394,"tutorRating":0.0035934613551944494,"tutorExp":-0.1785532534122467,"styleMatch":-0.03854867443442345,"langMatch":-0.09167100489139557}},"8":{"bias":-0.12657523155212402,"weights":{"subjectMatch":-0.22603778541088104,"modeMatch":-0.11244246363639832,"locationMatch":0.028790123760700226,"budgetOk":-0.17587226629257202,"tutorRating":0.10161096602678299,"tutorExp":0.012100640684366226,"styleMatch":0.1471591740846634,"langMatch":-0.02511856146156788}},"9":{"bias":-0.037804123014211655,"weights":{"subjectMatch":-0.6395524740219116,"modeMatch":-0.312142550945282,"locationMatch":-0.28118807077407837,"budgetOk":-0.40661031007766724,"tutorRating":0.2313273549079895,"tutorExp":0.14615434408187866,"styleMatch":0.006120120640844107,"langMatch":-0.014367902651429176}},"10":{"bias":0.08546215295791626,"weights":{"subjectMatch":0.28117164969444275,"modeMatch":-0.014347098767757416,"locationMatch":0.07790344208478928,"budgetOk":0.18387210369110107,"tutorRating":-0.043513089418411255,"tutorExp":-0.07975433021783829,"styleMatch":-0.09711705893278122,"langMatch":0.03327058628201485}},"11":{"bias":-0.274519681930542,"weights":{"subjectMatch":0.5602613687515259,"modeMatch":0.16488488018512726,"locationMatch":0.1405729204416275,"budgetOk":0.4016071856021881,"tutorRating":0.0960831493139267,"tutorExp":0.13617666065692902,"styleMatch":0.09610189497470856,"langMatch":0.04865538701415062}},"12":{"bias":0.1609809398651123,"weights":{"subjectMatch":-0.8163648843765259,"modeMatch":-0.6054497361183167,"locationMatch":-0.535834014415741,"budgetOk":-0.2112361490726471,"tutorRating":0.38219690322875977,"tutorExp":0.06010060012340546,"styleMatch":-0.09011749178171158,"langMatch":0.11055368185043335}},"13":{"bias":-0.020351091399788857,"weights":{"subjectMatch":-0.48754823207855225,"modeMatch":-0.2962411046028137,"locationMatch":-0.43833690881729126,"budgetOk":-0.4309323728084564,"tutorRating":-0.081017404794693,"tutorExp":0.09411881864070892,"styleMatch":0.07635240256786346,"langMatch":0.1374678760766983}},"14":{"bias":-0.1279296875,"weights":{"subjectMatch":-0.13657774031162262,"modeMatch":-0.09951034188270569,"locationMatch":0.14191444218158722,"budgetOk":-0.12753458321094513,"tutorRating":-0.010070208460092545,"tutorExp":-0.11821023374795914,"styleMatch":0.06036243587732315,"langMatch":0.10705813765525818}},"15":{"bias":0.015209179371595383,"weights":{"subjectMatch":0.0127214714884758,"modeMatch":0.1040024682879448,"locationMatch":-0.10807789862155914,"budgetOk":-0.187732994556427,"tutorRating":-0.07688359171152115,"tutorExp":-0.1250300109386444,"styleMatch":-0.07705403119325638,"langMatch":-0.0365544930100441}}},{"0":{"bias":-0.3784191608428955,"weights":{"0":-0.2328222393989563,"1":0.9745189547538757,"2":-1.0305557250976562,"3":0.654264509677887,"4":-0.23870141804218292,"5":0.13783138990402222,"6":0.19189251959323883,"7":0.7679391503334045,"8":-0.36497625708580017,"9":-0.7722431421279907,"10":0.18262879550457,"11":0.4239502549171448,"12":-1.17451810836792,"13":-0.855051577091217,"14":-0.18508532643318176,"15":-0.20027829706668854}},"1":{"bias":0.22609318792819977,"weights":{"0":0.10999099910259247,"1":-0.2689891457557678,"2":-0.028666596859693527,"3":-0.19372160732746124,"4":0.20220164954662323,"5":-0.06944084912538528,"6":0.067570760846138,"7":-0.3029525876045227,"8":-0.0072348047979176044,"9":0.2756896913051605,"10":-0.034694232046604156,"11":-0.08613413572311401,"12":0.1306227743625641,"13":0.029676740989089012,"14":-0.09937869757413864,"15":-0.01565518043935299}},"2":{"bias":-0.13576273620128632,"weights":{"0":0.05140121281147003,"1":0.030434943735599518,"2":0.055174320936203,"3":-0.0830821618437767,"4":0.04795272275805473,"5":-0.040912430733442307,"6":0.023773521184921265,"7":-0.20142680406570435,"8":-0.02334180474281311,"9":0.13356727361679077,"10":-0.19861271977424622,"11":-0.18018865585327148,"12":0.1418813019990921,"13":0.29887592792510986,"14":-0.14267925918102264,"15":0.023339182138442993}},"3":{"bias":-0.033460088074207306,"weights":{"0":-0.15843652188777924,"1":0.19036784768104553,"2":-0.08179932087659836,"3":0.28930947184562683,"4":-0.25314730405807495,"5":0.1871124505996704,"6":-0.06643721461296082,"7":0.18038803339004517,"8":-0.19851644337177277,"9":0.03903427720069885,"10":0.14605528116226196,"11":0.21815882623195648,"12":-0.23444944620132446,"13":-0.14588326215744019,"14":0.06137300282716751,"15":0.06859572231769562}},"4":{"bias":0.07416414469480515,"weights":{"0":0.025295440107584,"1":0.17974607646465302,"2":-0.4013364613056183,"3":0.19100311398506165,"4":-0.2539008557796478,"5":-0.011672739870846272,"6":-0.04228033870458603,"7":0.21115770936012268,"8":-0.09181268513202667,"9":-0.3802167475223541,"10":0.1607426255941391,"11":0.26294952630996704,"12":-0.42283400893211365,"13":-0.10637939721345901,"14":-0.10991852730512619,"15":0.06868506968021393}},"5":{"bias":0.04534638673067093,"weights":{"0":0.257892370223999,"1":-0.4367753267288208,"2":0.27988201379776,"3":-0.22953194379806519,"4":0.17921477556228638,"5":0.10796758532524109,"6":-0.12144527584314346,"7":-0.40807533264160156,"8":0.0005241277976892889,"9":0.37117499113082886,"10":0.08155078440904617,"11":-0.22202296555042267,"12":0.5300889611244202,"13":0.46512123942375183,"14":-0.01947760581970215,"15":0.07575451582670212}},"6":{"bias":0.09241028875112534,"weights":{"0":0.01150120235979557,"1":0.0058458480052649975,"2":0.10702580213546753,"3":-0.28026944398880005,"4":0.22482050955295563,"5":-0.1443749964237213,"6":-0.2132505178451538,"7":-0.3369104862213135,"8":0.20745113492012024,"9":0.26395729184150696,"10":0.09158862382173538,"11":-0.26102015376091003,"12":0.29998496174812317,"13":-0.03686333820223808,"14":-0.025149155408143997,"15":0.07090836763381958}},"7":{"bias":-0.040423985570669174,"weights":{"0":-0.18020835518836975,"1":0.3704838454723358,"2":-0.4814717173576355,"3":0.17211192846298218,"4":-0.03055729530751705,"5":0.050831615924835205,"6":0.18081223964691162,"7":0.40948405861854553,"8":0.08979073911905289,"9":-0.3817327618598938,"10":-0.08299479633569717,"11":0.19028083980083466,"12":-0.3428690731525421,"13":-0.3116854727268219,"14":-0.172793909907341,"15":-0.04048752039670944}}},{"score":{"bias":-0.531797468662262,"weights":{"0":2.438600540161133,"1":-0.6030899286270142,"2":-0.4915054142475128,"3":0.3424493372440338,"4":0.6495180130004883,"5":-1.2175607681274414,"6":-0.7128109335899353,"7":0.8084595203399658}}}],"outputLookup":true,"inputLookup":true,"activation":"sigmoid","trainOpts":{"iterations":5000,"errorThresh":0.005,"log":true,"logPeriod":500,"learningRate":0.01,"momentum":0.1,"callbackPeriod":10,"beta1":0.9,"beta2":0.999,"epsilon":1e-8}}