{"sizes":[8,16,8,1],"layers":[{"subjectMatch":{},"modeMatch":{},"locationMatch":{},"budgetOk":{},"tutorRating":{},"tutorExp":{},"styleMatch":{},"langMatch":{}},{"0":{"bias":0.05428163707256317,"weights":{"subjectMatch":-0.6480302214622498,"modeMatch":-0.3619738817214966,"locationMatch":-0.38796499371528625,"budgetOk":-0.2428191900253296,"tutorRating":0.15195278823375702,"tutorExp":0.15028682351112366,"styleMatch":-0.007352442946285009,"langMatch":-0.1049179658293724}},"1":{"bias":-0.060717444866895676,"weights":{"subjectMatch":-0.48539143800735474,"modeMatch":-0.36020994186401367,"locationMatch":-0.3550795912742615,"budgetOk":-0.2832028567790985,"tutorRating":0.060425739735364914,"tutorExp":-0.015865474939346313,"styleMatch":0.02676197700202465,"langMatch":0.2072843462228775}},"2":{"bias":0.238218292593956,"weights":{"subjectMatch":-0.8540946245193481,"modeMatch":-0.3139578402042389,"locationMatch":-0.29293081164360046,"budgetOk":-0.45088574290275574,"tutorRating":0.1741577535867691,"tutorExp":0.22602611780166626,"styleMatch":-0.11872439831495285,"langMatch":-0.04532516747713089}},"3":{"bias":0.36335811018943787,"weights":{"subjectMatch":-0.7998722791671753,"modeMatch":-0.4666730761528015,"locationMatch":-0.45380115509033203,"budgetOk":-0.30275267362594604,"tutorRating":0.057861294597387314,"tutorExp":-0.11231692880392075,"styleMatch":0.14868663251399994,"langMatch":-0.02917667105793953}},"4":{"bias":-0.19311882555484772,"weights":{"subjectMatch":0.7529088258743286,"modeMatch":0.21793560683727264,"locationMatch":0.12479465454816818,"budgetOk":0.3508109748363495,"tutorRating":0.01602659933269024,"tutorExp":0.11446429044008255,"styleMatch":0.13953348994255066,"langMatch":0.025427503511309624}},"5":{"bias":0.1594814956188202,"weights":{"subjectMatch":-0.27912721037864685,"modeMatch":-0.2871287167072296,"locationMatch":-0.20703695714473724,"budgetOk":-0.1660948246717453,"tutorRating":-0.08542747795581818,"tutorExp":0.04942866787314415,"styleMatch":-0.05758434906601906,"langMatch":0.05883464962244034}},"6":{"bias":-0.042735129594802856,"weights":{"subjectMatch":0.32681936025619507,"modeMatch":0.25356265902519226,"locationMatch":0.15830470621585846,"budgetOk":0.02587452344596386,"tutorRating":-0.14377915859222412,"tutorExp":-0.07609184086322784,"styleMatch":0.1849135309457779,"langMatch":0.07105038315057755}},"7":{"bias":0.02628336474299431,"weights":{"subjectMatch":-0.10676868259906769,"modeMatch":-0.28231170773506165,"locationMatch":-0.31662389636039734,"budgetOk":-0.11962471157312393,"tutorRating":-0.0640617161989212,"tutorExp":-0.18138085305690765,"styleMatch":-0.061069294810295105,"langMatch":0.18925617635250092}},"8":{"bias":0.06399528682231903,"weights":{"subjectMatch":-0.36337926983833313,"modeMatch":-0.20760560035705566,"locationMatch":-0.3123277425765991,"budgetOk":-0.031122159212827682,"tutorRating":0.0332038551568985,"tutorExp":0.14102372527122498,"styleMatch":-0.10838428139686584,"langMatch":-0.08577262610197067}},"9":{"bias":-0.2107086330652237,"weights":{"subjectMatch":0.440350204706192,"modeMatch":0.39383745193481445,"locationMatch":-0.0002533018705435097,"budgetOk":0.21971334517002106,"tutorRating":0.0023905234411358833,"tutorExp":0.05534070357680321,"styleMatch":-0.09991534799337387,"langMatch":-0.16440770030021667}},"10":{"bias":-0.08243046700954437,"weights":{"subjectMatch":0.25690799951553345,"modeMatch":0.3783193826675415,"locationMatch":0.2668045163154602,"budgetOk":0.2699832320213318,"tutorRating":0.04684774950146675,"tutorExp":0.09470997750759125,"styleMatch":-0.08772759139537811,"langMatch":0.10865560919046402}},"11":{"bias":0.08384384214878082,"weights":{"subjectMatch":0.20783689618110657,"modeMatch":-0.10642043501138687,"locationMatch":-0.06920477747917175,"budgetOk":0.07735701650381088,"tutorRating":-0.18662777543067932,"tutorExp":0.08893369138240814,"styleMatch":-0.10955488681793213,"langMatch":-0.0026100422255694866}},"12":{"bias":0.03111623227596283,"weights":{"subjectMatch":0.5078449845314026,"modeMatch":0.2317325621843338,"locationMatch":0.20938807725906372,"budgetOk":0.1713370382785797,"tutorRating":-0.18026113510131836,"tutorExp":0.017612189054489136,"styleMatch":-0.04292415827512741,"langMatch":-0.07547076791524887}},"13":{"bias":0.350955992937088,"weights":{"subjectMatch":-0.8949360251426697,"modeMatch":-0.3061298429965973,"locationMatch":-0.47602805495262146,"budgetOk":-0.2644302546977997,"tutorRating":-0.03618315979838371,"tutorExp":-0.12611152231693268,"styleMatch":-0.11895652860403061,"langMatch":0.226991206407547}},"14":{"bias":-0.14621582627296448,"weights":{"subjectMatch":-0.4849911630153656,"modeMatch":-0.15186169743537903,"locationMatch":-0.36298587918281555,"budgetOk":0.015500908717513084,"tutorRating":-0.08925327658653259,"tutorExp":0.02948692813515663,"styleMatch":0.05361456796526909,"langMatch":-0.14016443490982056}},"15":{"bias":0.114023856818676,"weights":{"subjectMatch":0.1361849159002304,"modeMatch":0.14596237242221832,"locationMatch":0.19667652249336243,"budgetOk":0.12862807512283325,"tutorRating":0.0005910558975301683,"tutorExp":0.09253644943237305,"styleMatch":0.07517722994089127,"langMatch":0.06020081043243408}}},{"0":{"bias":-0.013804476708173752,"weights":{"0":0.12191540002822876,"1":0.20461305975914001,"2":0.4935060143470764,"3":0.32021650671958923,"4":-0.23919960856437683,"5":0.19307860732078552,"6":-0.07512999325990677,"7":0.25792792439460754,"8":0.24967949092388153,"9":-0.17049652338027954,"10":-0.3267350196838379,"11":-0.12823008000850677,"12":-0.18897393345832825,"13":0.32107946276664734,"14":0.11534182727336884,"15":0.10909860581159592}},"1":{"bias":-0.003683023853227496,"weights":{"0":-0.3624952435493469,"1":-0.10967569053173065,"2":-0.4528562128543854,"3":-0.34627214074134827,"4":0.29905033111572266,"5":-0.17980097234249115,"6":0.2460908144712448,"7":0.04230935499072075,"8":-0.18609100580215454,"9":0.26376816630363464,"10":-0.025126777589321136,"11":0.18201003968715668,"12":0.1989835947751999,"13":-0.5534705519676208,"14":-0.22154010832309723,"15":0.10425162315368652}},"2":{"bias":-0.19560685753822327,"weights":{"0":0.14415472745895386,"1":0.0051339599303901196,"2":0.11638162285089493,"3":-0.18787366151809692,"4":0.044895634055137634,"5":0.023935507982969284,"6":0.0908975750207901,"7":-0.18670764565467834,"8":0.14173589646816254,"9":0.02081383392214775,"10":-0.19340816140174866,"11":-0.001683336216956377,"12":-0.1126682311296463,"13":-0.1655050814151764,"14":0.1336372196674347,"15":-0.08058243989944458}},"3":{"bias":0.058462027460336685,"weights":{"0":-0.22495707869529724,"1":-0.2553819417953491,"2":-0.19128534197807312,"3":-0.3930612802505493,"4":0.14677779376506805,"5":-0.05833469703793526,"6":0.1350099891424179,"7":0.10398229211568832,"8":-0.26044216752052307,"9":0.07785593718290329,"10":-0.027779655531048775,"11":-0.16113774478435516,"12":0.2865510880947113,"13":-0.2632134258747101,"14":-0.20856672525405884,"15":-0.12462849169969559}},"4":{"bias":0.0006098286248743534,"weights":{"0":0.4028934836387634,"1":0.5039857625961304,"2":0.5957978963851929,"3":0.6489624977111816,"4":-0.472013384103775,"5":0.14550115168094635,"6":-0.13350993394851685,"7":0.21874359250068665,"8":0.32627224922180176,"9":-0.13064813613891602,"10":-0.17961768805980682,"11":-0.09098932892084122,"12":-0.4034714102745056,"13":0.5687397718429565,"14":0.1526157408952713,"15":-0.30745676159858704}},"5":{"bias":-0.09038228541612625,"weights":{"0":0.022401608526706696,"1":0.01674232818186283,"2":-0.1376393437385559,"3":-0.2648378014564514,"4":0.2044552117586136,"5":-0.2636604905128479,"6":-0.008158144541084766,"7":0.025317279621958733,"8":0.04395303502678871,"9":-0.09631883352994919,"10":0.24557475745677948,"11":0.012371598742902279,"12":-0.03351449966430664,"13":-0.10643007606267929,"14":-0.17977745831012726,"15":0.17835982143878937}},"6":{"bias":0.05609404295682907,"weights":{"0":-0.4950239062309265,"1":-0.48192262649536133,"2":-0.6034993529319763,"3":-0.7273708581924438,"4":0.3656601309776306,"5":-0.18461549282073975,"6":0.3001694977283478,"7":-0.32240021228790283,"8":-0.10262603312730789,"9":0.4026074707508087,"10":0.35247257351875305,"11":-0.10945878177881241,"12":0.30458012223243713,"13":-0.6982963681221008,"14":-0.3693986237049103,"15":0.27973806858062744}},"7":{"bias":0.0756479948759079,"weights":{"0":-0.624778151512146,"1":-0.3431132733821869,"2":-0.5270287990570068,"3":-0.49609237909317017,"4":0.5951878428459167,"5":-0.26149749755859375,"6":0.14873383939266205,"7":-0.2226666361093521,"8":-0.2735344469547272,"9":0.30007752776145935,"10":0.4048480689525604,"11":0.011203402653336525,"12":0.1593608260154724,"13":-0.6733400821685791,"14":-0.32240405678749084,"15":0.011271903291344643}}},{"score":{"bias":-0.3807416260242462,"weights":{"0":-1.0290929079055786,"1":0.8569074869155884,"2":-0.13231219351291656,"3":0.5605347156524658,"4":-1.6142663955688477,"5":0.24568632245063782,"6":1.5012263059616089,"7":1.4257625341415405}}}],"outputLookup":true,"inputLookup":true,"activation":"sigmoid","trainOpts":{"iterations":5000,"errorThresh":0.005,"log":true,"logPeriod":500,"learningRate":0.01,"momentum":0.1,"callbackPeriod":10,"beta1":0.9,"beta2":0.999,"epsilon":1e-8}}