{"sizes":[6,12,8,3],"layers":[{"avgScore":{},"attempts":{},"consistency":{},"recentTrend":{},"timePerQ":{},"topicsCovered":{}},{"0":{"bias":3.1229333877563477,"weights":{"avgScore":1.3270695209503174,"attempts":-0.5831338763237,"consistency":0.530171275138855,"recentTrend":-7.35831880569458,"timePerQ":-1.149419903755188,"topicsCovered":-0.7356175184249878}},"1":{"bias":0.7395452857017517,"weights":{"avgScore":1.3519330024719238,"attempts":0.5916112065315247,"consistency":-3.5489606857299805,"recentTrend":-1.4174047708511353,"timePerQ":-0.15218445658683777,"topicsCovered":-0.11984913796186447}},"2":{"bias":-0.5615878105163574,"weights":{"avgScore":1.2071666717529297,"attempts":-0.6887503862380981,"consistency":0.8367791771888733,"recentTrend":-1.4625043869018555,"timePerQ":-0.46522215008735657,"topicsCovered":0.05101608857512474}},"3":{"bias":-2.0712575912475586,"weights":{"avgScore":5.88057279586792,"attempts":0.17418272793293,"consistency":0.10342097282409668,"recentTrend":-1.3331156969070435,"timePerQ":0.5387279391288757,"topicsCovered":-0.06571069359779358}},"4":{"bias":-0.08085601776838303,"weights":{"avgScore":1.049902319908142,"attempts":-0.3706326186656952,"consistency":0.5705441832542419,"recentTrend":-3.0611777305603027,"timePerQ":-0.12375842034816742,"topicsCovered":0.06819386780261993}},"5":{"bias":2.3337159156799316,"weights":{"avgScore":-4.02972936630249,"attempts":0.35042086243629456,"consistency":-0.7212302088737488,"recentTrend":-0.6103876233100891,"timePerQ":-0.39541035890579224,"topicsCovered":-0.10491320490837097}},"6":{"bias":2.9010937213897705,"weights":{"avgScore":2.180851936340332,"attempts":0.7487360239028931,"consistency":-8.957138061523438,"recentTrend":-0.21789056062698364,"timePerQ":-0.2529465854167938,"topicsCovered":-0.8042824268341064}},"7":{"bias":2.784654140472412,"weights":{"avgScore":-7.972540378570557,"attempts":1.006536841392517,"consistency":-1.020607352256775,"recentTrend":4.599186420440674,"timePerQ":0.762999415397644,"topicsCovered":-0.03601007163524628}},"8":{"bias":-1.8800153732299805,"weights":{"avgScore":6.622515678405762,"attempts":1.2414445877075195,"consistency":-0.7523610591888428,"recentTrend":-3.1175732612609863,"timePerQ":2.0738046169281006,"topicsCovered":0.32581427693367004}},"9":{"bias":-1.2428327798843384,"weights":{"avgScore":-4.3385396003723145,"attempts":-1.3192718029022217,"consistency":2.5294315814971924,"recentTrend":-3.7995669841766357,"timePerQ":4.20785665512085,"topicsCovered":1.2732540369033813}},"10":{"bias":-2.2329936027526855,"weights":{"avgScore":5.129298686981201,"attempts":-0.6837761998176575,"consistency":0.2366381287574768,"recentTrend":0.019512927159667015,"timePerQ":0.2709499001502991,"topicsCovered":-0.04769914969801903}},"11":{"bias":-1.238371729850769,"weights":{"avgScore":3.121027708053589,"attempts":-0.33444923162460327,"consistency":0.567438006401062,"recentTrend":0.3778929114341736,"timePerQ":-0.13567999005317688,"topicsCovered":0.15892629325389862}}},{"0":{"bias":-0.27753546833992004,"weights":{"0":-0.48757049441337585,"1":-0.37552183866500854,"2":0.19090457260608673,"3":1.1972225904464722,"4":0.05674896389245987,"5":-1.078480839729309,"6":-1.3674260377883911,"7":-1.760000228881836,"8":1.6735426187515259,"9":-1.3315824270248413,"10":1.1419744491577148,"11":0.4379660487174988}},"1":{"bias":0.27092185616493225,"weights":{"0":2.034025192260742,"1":0.8629835247993469,"2":-0.6602731943130493,"3":-3.2288694381713867,"4":0.11798807233572006,"5":2.6474051475524902,"6":3.050738573074341,"7":3.4764742851257324,"8":-3.700826644897461,"9":3.1658599376678467,"10":-2.869966745376587,"11":-1.8819907903671265}},"2":{"bias":-0.25327423214912415,"weights":{"0":-0.5971113443374634,"1":-0.07945915311574936,"2":0.24404498934745789,"3":1.3759812116622925,"4":0.07967985421419144,"5":-0.853835940361023,"6":-1.5021135807037354,"7":-1.9882475137710571,"8":1.6242352724075317,"9":-1.462051510810852,"10":1.1803964376449585,"11":0.5855848789215088}},"3":{"bias":-0.327731728553772,"weights":{"0":-2.114919662475586,"1":-0.7098678946495056,"2":0.6378411054611206,"3":3.449803590774536,"4":0.20460017025470734,"5":-2.7000553607940674,"6":-3.5318615436553955,"7":-3.904343605041504,"8":4.021420955657959,"9":-3.8697311878204346,"10":3.1069071292877197,"11":2.2522575855255127}},"4":{"bias":0.45690131187438965,"weights":{"0":3.6011743545532227,"1":1.6259257793426514,"2":0.9397487640380859,"3":-1.4776148796081543,"4":1.92296302318573,"5":1.085004448890686,"6":2.475564479827881,"7":2.5306599140167236,"8":-2.189185857772827,"9":2.2958426475524902,"10":-0.9375723004341125,"11":0.014992469921708107}},"5":{"bias":0.21700163185596466,"weights":{"0":0.04725118353962898,"1":0.06502906233072281,"2":0.13354969024658203,"3":0.6012600660324097,"4":0.3455006182193756,"5":-0.2734665870666504,"6":-0.04947815462946892,"7":-0.2766733169555664,"8":0.7283512353897095,"9":-0.18136349320411682,"10":0.09502777457237244,"11":0.13748927414417267}},"6":{"bias":0.35120800137519836,"weights":{"0":3.23201584815979,"1":1.1244714260101318,"2":1.1088436841964722,"3":-1.2872099876403809,"4":1.5267300605773926,"5":0.9457406401634216,"6":2.1574463844299316,"7":2.030228614807129,"8":-1.8553465604782104,"9":1.982910394668579,"10":-0.8066751956939697,"11":-0.05413667485117912}},"7":{"bias":0.41068708896636963,"weights":{"0":2.879483222961426,"1":1.2837119102478027,"2":0.7671363949775696,"3":-0.989240288734436,"4":1.4048668146133423,"5":0.7897668480873108,"6":2.1139180660247803,"7":1.9522132873535156,"8":-1.6122170686721802,"9":1.8245608806610107,"10":-0.8521981239318848,"11":-0.3095289170742035}}},{"weak":{"bias":-1.260522723197937,"weights":{"0":-3.1326794624328613,"1":6.018625736236572,"2":-3.323822021484375,"3":-7.521151065826416,"4":1.909158706665039,"5":-1.2978758811950684,"6":1.881637692451477,"7":1.4541372060775757}},"average":{"bias":1.1558510065078735,"weights":{"0":2.728175163269043,"1":-6.248879432678223,"2":3.085482120513916,"3":7.421240329742432,"4":-1.673625111579895,"5":1.1320781707763672,"6":-1.5706619024276733,"7":-1.347787857055664}},"strong":{"bias":0.16920071840286255,"weights":{"0":2.986037015914917,"1":-2.06435227394104,"2":2.7269678115844727,"3":2.406708240509033,"4":-6.545353412628174,"5":0.46722474694252014,"6":-5.605913162231445,"7":-5.136016845703125}}}],"outputLookup":true,"inputLookup":true,"activation":"sigmoid","trainOpts":{"iterations":5000,"errorThresh":0.005,"log":true,"logPeriod":500,"learningRate":0.01,"momentum":0.1,"callbackPeriod":10,"beta1":0.9,"beta2":0.999,"epsilon":1e-8}}