{"sizes":[6,12,8,3],"layers":[{"avgScore":{},"attempts":{},"consistency":{},"recentTrend":{},"timePerQ":{},"topicsCovered":{}},{"0":{"bias":3.0420303344726562,"weights":{"avgScore":-0.5630449056625366,"attempts":-0.23402246832847595,"consistency":-2.7187304496765137,"recentTrend":-2.2222390174865723,"timePerQ":-2.205650806427002,"topicsCovered":0.22590522468090057}},"1":{"bias":1.8087975978851318,"weights":{"avgScore":0.5265711545944214,"attempts":-1.298998236656189,"consistency":-8.462754249572754,"recentTrend":1.0020842552185059,"timePerQ":0.968766450881958,"topicsCovered":2.2265844345092773}},"2":{"bias":0.47521430253982544,"weights":{"avgScore":1.0589635372161865,"attempts":-0.6745620369911194,"consistency":-0.6602566242218018,"recentTrend":-2.5885438919067383,"timePerQ":-0.9278910756111145,"topicsCovered":-0.2531004250049591}},"3":{"bias":-0.16964852809906006,"weights":{"avgScore":0.7589329481124878,"attempts":0.12469103932380676,"consistency":-0.2503429353237152,"recentTrend":-0.933752179145813,"timePerQ":-0.41878795623779297,"topicsCovered":-0.2997565269470215}},"4":{"bias":-1.0133030414581299,"weights":{"avgScore":2.3298397064208984,"attempts":0.8128109574317932,"consistency":0.29093483090400696,"recentTrend":-0.2102334052324295,"timePerQ":0.07842213660478592,"topicsCovered":-0.11771631985902786}},"5":{"bias":-2.4622576236724854,"weights":{"avgScore":5.28501558303833,"attempts":-0.6478390693664551,"consistency":0.495128870010376,"recentTrend":-2.1352639198303223,"timePerQ":1.0166155099868774,"topicsCovered":1.7199088335037231}},"6":{"bias":5.206136226654053,"weights":{"avgScore":-1.7158942222595215,"attempts":0.5144380331039429,"consistency":-1.5885891914367676,"recentTrend":-5.761794567108154,"timePerQ":-0.46558836102485657,"topicsCovered":0.044088561087846756}},"7":{"bias":-0.3455239236354828,"weights":{"avgScore":-0.47811853885650635,"attempts":-0.8363949060440063,"consistency":0.13988542556762695,"recentTrend":0.8041638135910034,"timePerQ":-0.26545754075050354,"topicsCovered":-0.11681664735078812}},"8":{"bias":-3.076935052871704,"weights":{"avgScore":9.133511543273926,"attempts":-0.46847862005233765,"consistency":0.7923034429550171,"recentTrend":-4.760172367095947,"timePerQ":0.2087414562702179,"topicsCovered":-0.5314140915870667}},"9":{"bias":2.3716342449188232,"weights":{"avgScore":-5.151040077209473,"attempts":0.6902765035629272,"consistency":0.92255699634552,"recentTrend":-1.7485809326171875,"timePerQ":1.5367966890335083,"topicsCovered":-0.08904093503952026}},"10":{"bias":-1.5193685293197632,"weights":{"avgScore":2.7715580463409424,"attempts":0.5571491718292236,"consistency":0.42644691467285156,"recentTrend":0.28575006127357483,"timePerQ":-0.24503912031650543,"topicsCovered":-0.09855540096759796}},"11":{"bias":0.8182501792907715,"weights":{"avgScore":6.423376560211182,"attempts":1.0708329677581787,"consistency":-4.211817741394043,"recentTrend":-0.26953667402267456,"timePerQ":-0.1757107377052307,"topicsCovered":-0.8246344327926636}}},{"0":{"bias":0.5251233577728271,"weights":{"0":1.5631053447723389,"1":1.6263309717178345,"2":1.2147533893585205,"3":0.6853771805763245,"4":0.08996977657079697,"5":-0.5518956780433655,"6":2.2579801082611084,"7":-0.4771956503391266,"8":-1.889862060546875,"9":1.633696436882019,"10":-0.3305188715457916,"11":-0.8282873630523682}},"1":{"bias":0.2992076575756073,"weights":{"0":1.1866873502731323,"1":1.4277737140655518,"2":0.7445059418678284,"3":0.572282075881958,"4":-0.12137477844953537,"5":-0.20966032147407532,"6":1.4780040979385376,"7":-0.4481714963912964,"8":-1.3263204097747803,"9":0.9871375560760498,"10":-0.48694711923599243,"11":-0.6863909959793091}},"2":{"bias":-1.4511125087738037,"weights":{"0":-2.31050181388855,"1":-3.657897472381592,"2":0.07999768108129501,"3":0.08560594916343689,"4":1.4450560808181763,"5":3.3128058910369873,"6":-2.999661922454834,"7":-0.6610761284828186,"8":5.34251594543457,"9":-3.178863525390625,"10":1.6185089349746704,"11":3.804285764694214}},"3":{"bias":2.1775991916656494,"weights":{"0":3.11075758934021,"1":3.1635165214538574,"2":2.40802001953125,"3":0.8525089025497437,"4":0.28288379311561584,"5":-1.342043399810791,"6":4.271227836608887,"7":-0.23923130333423615,"8":-4.211119651794434,"9":3.7086336612701416,"10":-0.6230911612510681,"11":-1.754494071006775}},"4":{"bias":-0.10023541748523712,"weights":{"0":0.7340773940086365,"1":0.5885832905769348,"2":0.590736985206604,"3":0.09586784988641739,"4":-0.1759975254535675,"5":-0.07733696699142456,"6":0.9247885942459106,"7":-0.4655270278453827,"8":-0.5856211185455322,"9":0.6354653239250183,"10":-0.29447951912879944,"11":-0.2190205454826355}},"5":{"bias":-0.19849297404289246,"weights":{"0":-0.3711305856704712,"1":-1.0322396755218506,"2":-0.14452141523361206,"3":0.2258264720439911,"4":-0.06471820920705795,"5":0.6255013346672058,"6":-0.5764731764793396,"7":-0.2633586823940277,"8":1.2972475290298462,"9":-1.0124551057815552,"10":0.33103513717651367,"11":0.6640937924385071}},"6":{"bias":-0.914990246295929,"weights":{"0":-1.4167457818984985,"1":-2.349540948867798,"2":0.19389773905277252,"3":0.23279845714569092,"4":0.8170657753944397,"5":2.008296251296997,"6":-2.0292856693267822,"7":-0.6161680221557617,"8":3.719175338745117,"9":-2.1951591968536377,"10":1.0016008615493774,"11":2.5763070583343506}},"7":{"bias":1.309978723526001,"weights":{"0":1.6064221858978271,"1":3.18061900138855,"2":0.16740797460079193,"3":-0.15993128716945648,"4":-1.2299152612686157,"5":-3.03786039352417,"6":2.7683820724487305,"7":0.423770546913147,"8":-4.596813678741455,"9":2.730836868286133,"10":-1.3633517026901245,"11":-3.1673617362976074}}},{"weak":{"bias":-0.524528980255127,"weights":{"0":1.1394637823104858,"1":0.9042538404464722,"2":-7.303185939788818,"3":2.993023633956909,"4":-0.3260641098022461,"5":-2.109389305114746,"6":-5.077969074249268,"7":6.203052997589111}},"average":{"bias":0.30284133553504944,"weights":{"0":-0.9348019361495972,"1":-0.7578844428062439,"2":7.398784160614014,"3":-2.714005947113037,"4":-0.04742373526096344,"5":1.5226341485977173,"6":5.106440544128418,"7":-6.119749546051025}},"strong":{"bias":0.2587442100048065,"weights":{"0":-4.295367240905762,"1":-2.957817316055298,"2":2.6514625549316406,"3":-9.005338668823242,"4":-1.5981276035308838,"5":1.7876476049423218,"6":2.7839605808258057,"7":-3.009232759475708}}}],"outputLookup":true,"inputLookup":true,"activation":"sigmoid","trainOpts":{"iterations":5000,"errorThresh":0.005,"log":true,"logPeriod":500,"learningRate":0.01,"momentum":0.1,"callbackPeriod":10,"beta1":0.9,"beta2":0.999,"epsilon":1e-8}}