{"sizes":[8,16,8,1],"layers":[{"subjectMatch":{},"studentPerf":{},"tutorSuccessRate":{},"pastInteraction":{},"tutorRating":{},"budgetFit":{},"availabilityOverlap":{},"reviewSentiment":{}},{"0":{"bias":0.1373252272605896,"weights":{"subjectMatch":-0.7920037508010864,"studentPerf":-0.11310581117868423,"tutorSuccessRate":-0.20393304526805878,"pastInteraction":-0.01795060746371746,"tutorRating":0.04626873508095741,"budgetFit":-0.02311466448009014,"availabilityOverlap":-0.05540652200579643,"reviewSentiment":-0.018250057473778725}},"1":{"bias":-0.13571007549762726,"weights":{"subjectMatch":0.7724177241325378,"studentPerf":0.12789149582386017,"tutorSuccessRate":0.02691916562616825,"pastInteraction":0.29909712076187134,"tutorRating":0.13934022188186646,"budgetFit":0.14645831286907196,"availabilityOverlap":0.16218627989292145,"reviewSentiment":0.06473752856254578}},"2":{"bias":-0.042854394763708115,"weights":{"subjectMatch":-0.3314127027988434,"studentPerf":0.15437334775924683,"tutorSuccessRate":0.023481901735067368,"pastInteraction":0.09682867676019669,"tutorRating":-0.12320835143327713,"budgetFit":-0.2521967589855194,"availabilityOverlap":0.08284340798854828,"reviewSentiment":-0.10894162952899933}},"3":{"bias":0.24269434809684753,"weights":{"subjectMatch":-0.8110212683677673,"studentPerf":-0.0706760585308075,"tutorSuccessRate":-0.1424371898174286,"pastInteraction":-0.28073713183403015,"tutorRating":0.01973532699048519,"budgetFit":-0.06787212193012238,"availabilityOverlap":0.017382491379976273,"reviewSentiment":-0.06720718741416931}},"4":{"bias":-0.07407578080892563,"weights":{"subjectMatch":0.7478616833686829,"studentPerf":0.09275026619434357,"tutorSuccessRate":0.19334843754768372,"pastInteraction":0.15748898684978485,"tutorRating":-0.10159730911254883,"budgetFit":0.2338797003030777,"availabilityOverlap":-0.11469186842441559,"reviewSentiment":0.061422739177942276}},"5":{"bias":-0.024865731596946716,"weights":{"subjectMatch":-0.6007719039916992,"studentPerf":0.017524106428027153,"tutorSuccessRate":0.026881609112024307,"pastInteraction":-0.18705466389656067,"tutorRating":-0.09804589301347733,"budgetFit":-0.14400260150432587,"availabilityOverlap":-0.06395696848630905,"reviewSentiment":-0.053218916058540344}},"6":{"bias":0.1272272914648056,"weights":{"subjectMatch":-0.4547150731086731,"studentPerf":-0.003022552700713277,"tutorSuccessRate":-0.027909062802791595,"pastInteraction":-0.22396144270896912,"tutorRating":-0.19399292767047882,"budgetFit":-0.10190346837043762,"availabilityOverlap":-0.08473929762840271,"reviewSentiment":-0.19398756325244904}},"7":{"bias":-0.049231912940740585,"weights":{"subjectMatch":-0.12975025177001953,"studentPerf":-0.02746286615729332,"tutorSuccessRate":0.12215229868888855,"pastInteraction":0.10661711543798447,"tutorRating":0.14181676506996155,"budgetFit":0.01248534582555294,"availabilityOverlap":0.096055768430233,"reviewSentiment":-0.00365701736882329}},"8":{"bias":-0.1507786214351654,"weights":{"subjectMatch":-0.14276352524757385,"studentPerf":-0.11607011407613754,"tutorSuccessRate":-0.1442059874534607,"pastInteraction":0.09101951122283936,"tutorRating":0.007042509038001299,"budgetFit":-0.1376848667860031,"availabilityOverlap":-0.03154236450791359,"reviewSentiment":0.10734976083040237}},"9":{"bias":0.08714934438467026,"weights":{"subjectMatch":-0.7398349642753601,"studentPerf":-0.12766243517398834,"tutorSuccessRate":0.06719517707824707,"pastInteraction":-0.1943604201078415,"tutorRating":0.1389150768518448,"budgetFit":-0.1499367356300354,"availabilityOverlap":-0.0369039885699749,"reviewSentiment":-0.028642987832427025}},"10":{"bias":-0.2125808149576187,"weights":{"subjectMatch":0.784758448600769,"studentPerf":0.05466252565383911,"tutorSuccessRate":0.10400864481925964,"pastInteraction":0.165965273976326,"tutorRating":-0.02681451290845871,"budgetFit":0.11855286359786987,"availabilityOverlap":0.03970901295542717,"reviewSentiment":0.1522824764251709}},"11":{"bias":-0.1926434487104416,"weights":{"subjectMatch":0.5479642748832703,"studentPerf":-0.0035157985985279083,"tutorSuccessRate":0.041732173413038254,"pastInteraction":-0.07735998928546906,"tutorRating":0.10224974155426025,"budgetFit":0.1538327932357788,"availabilityOverlap":0.0849444642663002,"reviewSentiment":0.08933991938829422}},"12":{"bias":0.1662617176771164,"weights":{"subjectMatch":0.1700352430343628,"studentPerf":-0.1447485089302063,"tutorSuccessRate":-0.03998800367116928,"pastInteraction":0.05769738182425499,"tutorRating":-0.15674623847007751,"budgetFit":0.20657551288604736,"availabilityOverlap":-0.05551016703248024,"reviewSentiment":0.14170850813388824}},"13":{"bias":0.18061703443527222,"weights":{"subjectMatch":-0.3830990195274353,"studentPerf":0.016326069831848145,"tutorSuccessRate":-0.166086345911026,"pastInteraction":-0.0047804610803723335,"tutorRating":-0.1665486991405487,"budgetFit":-0.0030465072486549616,"availabilityOverlap":0.020769042894244194,"reviewSentiment":-0.09189580380916595}},"14":{"bias":-0.14606817066669464,"weights":{"subjectMatch":-0.20994983613491058,"studentPerf":-0.1416110098361969,"tutorSuccessRate":-0.06959343701601028,"pastInteraction":-0.09542038291692734,"tutorRating":0.07726829499006271,"budgetFit":0.09236772358417511,"availabilityOverlap":0.09694201499223709,"reviewSentiment":-0.16882890462875366}},"15":{"bias":0.14812089502811432,"weights":{"subjectMatch":0.3466319739818573,"studentPerf":-0.0013216023799031973,"tutorSuccessRate":0.15930548310279846,"pastInteraction":0.0023775415029376745,"tutorRating":0.0726252943277359,"budgetFit":-0.09691789746284485,"availabilityOverlap":-0.12171467393636703,"reviewSentiment":0.1549227386713028}}},{"0":{"bias":0.1083967536687851,"weights":{"0":0.06449282169342041,"1":0.008674138225615025,"2":-0.050179436802864075,"3":0.1612457036972046,"4":0.027748970314860344,"5":-0.026973402127623558,"6":-0.16623371839523315,"7":-0.12956251204013824,"8":0.13564707338809967,"9":-0.18417663872241974,"10":-0.07433221489191055,"11":-0.2073187381029129,"12":-0.030301546677947044,"13":0.16584858298301697,"14":0.0008700860198587179,"15":-0.11466074734926224}},"1":{"bias":0.14664815366268158,"weights":{"0":0.5190216302871704,"1":-0.5946040749549866,"2":0.08929431438446045,"3":0.674850344657898,"4":-0.46447399258613586,"5":0.4979184865951538,"6":0.2814280688762665,"7":-0.1387261152267456,"8":0.11711624264717102,"9":0.5441587567329407,"10":-0.3965322971343994,"11":-0.3639419376850128,"12":-0.15741696953773499,"13":0.38461703062057495,"14":0.29358211159706116,"15":-0.30822882056236267}},"2":{"bias":-0.17655982077121735,"weights":{"0":-0.23307688534259796,"1":0.14614839851856232,"2":-0.14578084647655487,"3":-0.17913171648979187,"4":0.16704773902893066,"5":-0.2609405219554901,"6":0.03015471063554287,"7":0.09015486389398575,"8":-0.13156792521476746,"9":-0.13586817681789398,"10":-0.0588558204472065,"11":-0.07955799996852875,"12":0.05301704257726669,"13":-0.09055407345294952,"14":-0.11729028075933456,"15":0.2040543258190155}},"3":{"bias":-0.22394494712352753,"weights":{"0":-0.38904058933258057,"1":0.45422086119651794,"2":-0.3180260956287384,"3":-0.2595563530921936,"4":0.46276238560676575,"5":-0.2156422883272171,"6":-0.35882318019866943,"7":-0.14274759590625763,"8":0.023742323741316795,"9":-0.38092294335365295,"10":0.48676806688308716,"11":0.36486777663230896,"12":-0.054541271179914474,"13":-0.21635641157627106,"14":-0.009803351014852524,"15":0.09586680680513382}},"4":{"bias":-0.08597194403409958,"weights":{"0":-0.5604907274246216,"1":0.4995487928390503,"2":-0.146623894572258,"3":-0.3809759020805359,"4":0.4590916335582733,"5":-0.2672813832759857,"6":-0.2263879030942917,"7":-0.1411072164773941,"8":-0.13808156549930573,"9":-0.21899642050266266,"10":0.5291091799736023,"11":0.25596165657043457,"12":-0.04394785687327385,"13":-0.1991686075925827,"14":0.04971751943230629,"15":-0.07177463173866272}},"5":{"bias":-0.050773315131664276,"weights":{"0":0.02302462048828602,"1":0.1532202810049057,"2":-0.21884839236736298,"3":-0.2424727976322174,"4":0.018580637872219086,"5":-0.1773058921098709,"6":-0.25371605157852173,"7":0.08818120509386063,"8":-0.022401416674256325,"9":-0.08603997528553009,"10":0.15908445417881012,"11":-0.05304790660738945,"12":0.1312628984451294,"13":0.060021623969078064,"14":0.06302309781312943,"15":-0.05276014283299446}},"6":{"bias":-0.16747641563415527,"weights":{"0":-0.13602150976657867,"1":0.3489692211151123,"2":0.02235301025211811,"3":-0.25049901008605957,"4":0.014810657128691673,"5":-0.061936140060424805,"6":-0.1043793261051178,"7":-0.06870522350072861,"8":-0.18270975351333618,"9":-0.30752885341644287,"10":0.17391517758369446,"11":0.07341370731592178,"12":0.2167484611272812,"13":-0.04736988991498947,"14":-0.0862012729048729,"15":0.18362057209014893}},"7":{"bias":0.08214356750249863,"weights":{"0":0.12111768871545792,"1":-0.11473361402750015,"2":0.23495520651340485,"3":0.30677059292793274,"4":-0.2295456975698471,"5":0.29627326130867004,"6":0.2746117413043976,"7":0.1794043481349945,"8":0.07257615029811859,"9":0.31366485357284546,"10":-0.1897110790014267,"11":-0.10476087033748627,"12":-0.11543583869934082,"13":-0.09869498014450073,"14":0.1756971925497055,"15":-0.12908178567886353}}},{"score":{"bias":-0.10600552707910538,"weights":{"0":-0.1347113847732544,"1":-1.6225063800811768,"2":0.3152415156364441,"3":1.0789247751235962,"4":1.09429931640625,"5":0.2984379529953003,"6":0.5025485754013062,"7":-0.746511697769165}}}],"outputLookup":true,"inputLookup":true,"activation":"sigmoid","trainOpts":{"iterations":5000,"errorThresh":0.005,"log":true,"logPeriod":500,"learningRate":0.01,"momentum":0.1,"callbackPeriod":10,"beta1":0.9,"beta2":0.999,"epsilon":1e-8}}