{"sizes":[8,16,8,1],"layers":[{"subjectMatch":{},"studentPerf":{},"tutorSuccessRate":{},"pastInteraction":{},"tutorRating":{},"budgetFit":{},"availabilityOverlap":{},"reviewSentiment":{}},{"0":{"bias":-0.061140432953834534,"weights":{"subjectMatch":-0.529819905757904,"studentPerf":-0.1923319697380066,"tutorSuccessRate":0.17409972846508026,"pastInteraction":-0.07917983829975128,"tutorRating":-0.11928541958332062,"budgetFit":-0.01754087209701538,"availabilityOverlap":0.07119162380695343,"reviewSentiment":0.0803394690155983}},"1":{"bias":0.11568724364042282,"weights":{"subjectMatch":0.12606050074100494,"studentPerf":0.17563770711421967,"tutorSuccessRate":-0.13967375457286835,"pastInteraction":-0.04667283594608307,"tutorRating":0.004536295775324106,"budgetFit":-0.1456359177827835,"availabilityOverlap":0.0990779846906662,"reviewSentiment":0.18584594130516052}},"2":{"bias":-0.001034266664646566,"weights":{"subjectMatch":-0.4811552166938782,"studentPerf":-0.0813317745923996,"tutorSuccessRate":-0.05798981711268425,"pastInteraction":0.07349991798400879,"tutorRating":-0.20428809523582458,"budgetFit":-0.21346601843833923,"availabilityOverlap":-0.21193067729473114,"reviewSentiment":-0.04820245876908302}},"3":{"bias":0.06830568611621857,"weights":{"subjectMatch":0.9238631129264832,"studentPerf":-0.042852241545915604,"tutorSuccessRate":-0.05412190034985542,"pastInteraction":0.1583554446697235,"tutorRating":-0.0005509888287633657,"budgetFit":-0.02021782658994198,"availabilityOverlap":-0.08928640186786652,"reviewSentiment":0.2190687209367752}},"4":{"bias":-0.16808559000492096,"weights":{"subjectMatch":0.32221367955207825,"studentPerf":-0.07175183296203613,"tutorSuccessRate":-0.030730247497558594,"pastInteraction":0.2107868641614914,"tutorRating":0.02228637970983982,"budgetFit":0.21868760883808136,"availabilityOverlap":0.07950504124164581,"reviewSentiment":0.14423713088035583}},"5":{"bias":0.05786999687552452,"weights":{"subjectMatch":0.31404680013656616,"studentPerf":-0.0759604424238205,"tutorSuccessRate":-0.08661223948001862,"pastInteraction":0.1275399625301361,"tutorRating":-0.11507309973239899,"budgetFit":-0.02557913400232792,"availabilityOverlap":-0.01595955528318882,"reviewSentiment":0.08637945353984833}},"6":{"bias":-0.21538525819778442,"weights":{"subjectMatch":0.6423625946044922,"studentPerf":-0.08785651624202728,"tutorSuccessRate":0.11675385385751724,"pastInteraction":0.30020198225975037,"tutorRating":0.18457135558128357,"budgetFit":0.16804838180541992,"availabilityOverlap":0.03137129917740822,"reviewSentiment":0.15055407583713531}},"7":{"bias":0.02160322479903698,"weights":{"subjectMatch":-0.8653148412704468,"studentPerf":-0.003073988249525428,"tutorSuccessRate":-0.06963453441858292,"pastInteraction":-0.14580248296260834,"tutorRating":0.021344445645809174,"budgetFit":0.032520852982997894,"availabilityOverlap":-0.08591712266206741,"reviewSentiment":-0.16238684952259064}},"8":{"bias":0.024073338136076927,"weights":{"subjectMatch":-0.1612449437379837,"studentPerf":-0.1256476491689682,"tutorSuccessRate":-0.12609408795833588,"pastInteraction":-0.062362924218177795,"tutorRating":-0.06287476420402527,"budgetFit":-0.19681411981582642,"availabilityOverlap":-0.14567944407463074,"reviewSentiment":-0.16369014978408813}},"9":{"bias":-0.08374829590320587,"weights":{"subjectMatch":-0.6347355842590332,"studentPerf":0.05245218053460121,"tutorSuccessRate":-0.1654515415430069,"pastInteraction":-0.16019506752490997,"tutorRating":-0.08695057779550552,"budgetFit":-0.13517959415912628,"availabilityOverlap":-0.04612604156136513,"reviewSentiment":-0.002923266962170601}},"10":{"bias":-0.15736857056617737,"weights":{"subjectMatch":0.6275545954704285,"studentPerf":-0.17275241017341614,"tutorSuccessRate":0.1713128387928009,"pastInteraction":-0.026991400867700577,"tutorRating":0.13048431277275085,"budgetFit":0.19633615016937256,"availabilityOverlap":0.2549440264701843,"reviewSentiment":-0.08290771394968033}},"11":{"bias":0.18587157130241394,"weights":{"subjectMatch":-0.5540674328804016,"studentPerf":-0.07491852343082428,"tutorSuccessRate":-0.08573427051305771,"pastInteraction":-0.31853678822517395,"tutorRating":0.10714807361364365,"budgetFit":-0.2519030272960663,"availabilityOverlap":0.00840697530657053,"reviewSentiment":-0.28162217140197754}},"12":{"bias":-0.04130592569708824,"weights":{"subjectMatch":-0.4085272252559662,"studentPerf":0.12710726261138916,"tutorSuccessRate":0.13328424096107483,"pastInteraction":-0.009968576952815056,"tutorRating":-0.01728663593530655,"budgetFit":-0.13928502798080444,"availabilityOverlap":0.11008796095848083,"reviewSentiment":-0.20592674612998962}},"13":{"bias":0.1328148990869522,"weights":{"subjectMatch":-0.825226902961731,"studentPerf":0.18271537125110626,"tutorSuccessRate":-0.1987805813550949,"pastInteraction":0.036057520657777786,"tutorRating":-0.09824108332395554,"budgetFit":0.03339848294854164,"availabilityOverlap":-0.1590561717748642,"reviewSentiment":-0.05585920065641403}},"14":{"bias":0.15359441936016083,"weights":{"subjectMatch":-0.16840790212154388,"studentPerf":0.03630268573760986,"tutorSuccessRate":0.05430802330374718,"pastInteraction":-0.07917056232690811,"tutorRating":0.145795077085495,"budgetFit":-0.03475356847047806,"availabilityOverlap":0.13794033229351044,"reviewSentiment":-0.13179518282413483}},"15":{"bias":-0.20707561075687408,"weights":{"subjectMatch":0.6380833983421326,"studentPerf":0.09766834229230881,"tutorSuccessRate":-0.010551979765295982,"pastInteraction":0.0856919139623642,"tutorRating":0.09184576570987701,"budgetFit":0.2184899002313614,"availabilityOverlap":0.12564212083816528,"reviewSentiment":0.15439951419830322}}},{"0":{"bias":0.02159332111477852,"weights":{"0":0.07392074912786484,"1":0.009312987327575684,"2":-0.11846330761909485,"3":-0.11721087247133255,"4":0.14416660368442535,"5":-0.1156669333577156,"6":-0.23430344462394714,"7":-0.08522620797157288,"8":0.20171424746513367,"9":0.17471905052661896,"10":-0.0039044776931405067,"11":0.12769268453121185,"12":0.05786948651075363,"13":-0.0850682333111763,"14":-0.10585138946771622,"15":-0.17550277709960938}},"1":{"bias":0.024482877925038338,"weights":{"0":-0.007715321145951748,"1":-0.014972926117479801,"2":-0.17618654668331146,"3":0.28263863921165466,"4":-0.11933780461549759,"5":0.2353404313325882,"6":0.25374355912208557,"7":-0.1865316480398178,"8":-0.07855718582868576,"9":-0.054005011916160583,"10":0.2994872033596039,"11":-0.27447178959846497,"12":-0.09183187782764435,"13":-0.04576457664370537,"14":-0.15604168176651,"15":0.15001212060451508}},"2":{"bias":-0.06988048553466797,"weights":{"0":-0.1364315301179886,"1":-0.08823173493146896,"2":-0.2542186379432678,"3":0.2870370149612427,"4":0.029340259730815887,"5":0.16817504167556763,"6":0.3038095235824585,"7":-0.12431265413761139,"8":0.0504867285490036,"9":-0.35742440819740295,"10":0.3004293739795685,"11":-0.17926111817359924,"12":-0.18216341733932495,"13":-0.4304928481578827,"14":-0.1253613978624344,"15":0.259197473526001}},"3":{"bias":-0.05184632167220116,"weights":{"0":-0.25147491693496704,"1":0.11521196365356445,"2":0.004980824887752533,"3":0.39213159680366516,"4":0.2292715460062027,"5":-0.08205591142177582,"6":0.33578380942344666,"7":-0.2439291626214981,"8":-0.06372268497943878,"9":-0.4048433005809784,"10":0.06726673990488052,"11":-0.4096398651599884,"12":-0.32248297333717346,"13":-0.24328625202178955,"14":0.050145216286182404,"15":0.20531226694583893}},"4":{"bias":-0.05131267383694649,"weights":{"0":0.39844492077827454,"1":-0.15525095164775848,"2":0.42512643337249756,"3":-0.4536481499671936,"4":-0.30504894256591797,"5":-0.05500110238790512,"6":-0.32170361280441284,"7":0.5584716200828552,"8":0.28723838925361633,"9":0.22300030291080475,"10":-0.14879414439201355,"11":0.23565725982189178,"12":0.3017105460166931,"13":0.304059237241745,"14":0.08448059856891632,"15":-0.24024522304534912}},"5":{"bias":-0.11159965395927429,"weights":{"0":-0.3227044939994812,"1":0.04817923158407211,"2":-0.3839552700519562,"3":0.40711870789527893,"4":0.20705579221248627,"5":0.10725656896829605,"6":0.3292580544948578,"7":-0.564993679523468,"8":-0.0362892784178257,"9":-0.47871747612953186,"10":0.3803311288356781,"11":-0.3897533416748047,"12":-0.009731353260576725,"13":-0.5174808502197266,"14":0.006116846110671759,"15":0.24340477585792542}},"6":{"bias":-0.09834107756614685,"weights":{"0":-0.016320694237947464,"1":-0.08926717936992645,"2":-0.21324682235717773,"3":0.16120538115501404,"4":-0.02707287110388279,"5":0.10209529101848602,"6":0.3248031437397003,"7":-0.40601858496665955,"8":-0.2253243625164032,"9":-0.18775469064712524,"10":0.3556749224662781,"11":-0.2951572835445404,"12":-0.018079308792948723,"13":-0.4103740453720093,"14":-0.08131725341081619,"15":0.3072955310344696}},"7":{"bias":-0.14263811707496643,"weights":{"0":0.15534985065460205,"1":0.08636239171028137,"2":0.11701717972755432,"3":-0.4037656784057617,"4":-0.2689834237098694,"5":-0.051656559109687805,"6":-0.05916421115398407,"7":0.4304114878177643,"8":0.24520647525787354,"9":0.19455713033676147,"10":-0.1929655522108078,"11":0.26513800024986267,"12":0.2907583713531494,"13":0.33445850014686584,"14":0.24561822414398193,"15":-0.34157508611679077}}},{"score":{"bias":-0.466761976480484,"weights":{"0":-0.32413411140441895,"1":0.4640297293663025,"2":0.7573751211166382,"3":0.7595149278640747,"4":-1.2711883783340454,"5":1.1515873670578003,"6":0.7559859156608582,"7":-1.027042269706726}}}],"outputLookup":true,"inputLookup":true,"activation":"sigmoid","trainOpts":{"iterations":5000,"errorThresh":0.005,"log":true,"logPeriod":500,"learningRate":0.01,"momentum":0.1,"callbackPeriod":10,"beta1":0.9,"beta2":0.999,"epsilon":1e-8}}